model = '{"levels":[{"inputs":[0.4395920338398427,0,0,0,0],"outputs":[1,0,0,0,1,1],"biases":[0.04362850576738542,0.4821903457161417,0.4581680482408406,-0.1762337810119402,-0.5907897002390032,-0.6945147717684205],"weights":[[0.16204412624753406,0.7174522759413944,-0.30490563105432633,-0.6078251142783535,0.22693704792760316,0.316515691335741],[-0.8959018654536597,-0.8371649523939206,-0.26568287193812035,-0.6250931258944714,-0.02850912664505767,-0.5780567176144613],[0.6014944376876907,-0.7015259593758687,0.11593661095990715,-0.0932333795795075,-0.9860985325645975,-0.38307160592806877],[0.043810556336063566,0.0575552696301842,0.8693466014258826,-0.6092032546918666,-0.27140176295590734,0.26025815130199126],[0.16816792784240997,-0.9444045538130101,0.8988448098183315,-0.753363866820461,0.17751180580079984,-0.5630188595685737]]},{"inputs":[1,0,0,0,1,1],"outputs":[1,0,0,0],"biases":[-0.18769443885071346,0.1508186600223782,-0.8167308309708737,0.10955253870518863],"weights":[[0.13806285798466433,0.16833999647895093,-0.9348077657919713,-0.36670927995886426],[0.23729438244513812,-0.17255886762741834,-0.06432878929504682,-0.6027607499082834],[0.22235270721467382,0.8217228124879066,0.0402066563164607,-0.30040211460776156],[-0.13882668076413074,0.23279468201027376,-0.33320983621611866,0.3642235752625216],[0.78782299073871,-0.7894138537890956,-0.2013996614990572,-0.5698296318183584],[-0.5509122830816313,0.6934153649115848,-0.5710757157178787,-0.11297234922949251]]}]}'